{
  "seed": 42,
  "hidden_initial": 2,
  "hidden_final": 16,
  "phase1": {
    "W1": [
      [
        0.15235853987721568,
        -0.5199920531202478
      ],
      [
        0.3752255979032286,
        0.47028235819560693
      ]
    ],
    "b1": [
      0.0,
      0.0
    ],
    "W2": [
      [
        -0.9755175943269182
      ],
      [
        -0.651089753431159
      ]
    ],
    "b2": [
      0.0
    ]
  },
  "growth_extension": {
    "W1_extra": [
      [
        0.03835212095018561,
        -0.09487277770307466,
        -0.005040347251286639,
        -0.255913178272074,
        0.26381939245884856,
        0.23333758062868448,
        0.019809209268364814,
        0.33817236209040985,
        0.14025280267561369,
        -0.25778773886497147,
        0.11062523522474965,
        -0.2876647802486997,
        0.26353509039218176,
        -0.014977773295875869
      ],
      [
        -0.055458709063578165,
        -0.20427886332118242,
        0.3667624016022091,
        -0.046358844620640646,
        -0.12849834664893217,
        -0.10564006514646887,
        0.1596927556660046,
        0.1096332193092235,
        0.12381978347879652,
        0.1292463009023648,
        0.6424942802611383,
        -0.12192450491538467,
        -0.15367281872146119,
        -0.2441318184743633
      ]
    ],
    "b1_extra": [
      0.0,
      0.0,
      0.0,
      0.0,
      0.0,
      0.0,
      0.0,
      0.0,
      0.0,
      0.0,
      0.0,
      0.0,
      0.0,
      0.0
    ],
    "W2_extra": [
      [
        0.1847938267726487
      ],
      [
        0.33869168781626746
      ],
      [
        -0.03418423729646252
      ],
      [
        -0.2520469430887584
      ],
      [
        -0.24734436470737187
      ],
      [
        0.19517783634741032
      ],
      [
        0.2229762513610327
      ],
      [
        0.1629462804915585
      ],
      [
        -0.19965291218660827
      ],
      [
        0.06964839692001593
      ],
      [
        0.03500574274221847
      ],
      [
        0.06560657901870388
      ],
      [
        0.26142863338445693
      ],
      [
        0.06707866463240468
      ]
    ]
  }
}